//Numpy array shape [16, 20]
//Min -2.000000000000
//Max 1.937500000000
//Number of zeros 169

#ifndef W2_H_
#define W2_H_

#ifndef __SYNTHESIS__
weight2_t w2[320];
#else
weight2_t w2[320] = {0.00000, 0.00000, 0.00000, -0.06250, 0.00000, -0.06250, -0.87500, 0.00000, 0.00000, 0.00000, -1.31250, 0.00000, -1.18750, 0.00000, 0.00000, 1.75000, 0.00000, 0.00000, 0.00000, 0.00000, 0.00000, 0.00000, 0.00000, -1.93750, -2.00000, 0.00000, -0.81250, 0.00000, 0.00000, 0.00000, 1.06250, 0.00000, -1.00000, -0.06250, 0.00000, -0.43750, 0.00000, -0.18750, 0.00000, 0.00000, 0.56250, -0.06250, 0.00000, -2.00000, 0.25000, 0.06250, -0.06250, -0.12500, 0.00000, 0.00000, -1.68750, 0.00000, -0.18750, -0.06250, 0.00000, -0.56250, 0.00000, -0.25000, 0.06250, 0.00000, -1.93750, 0.00000, 0.00000, 0.12500, 0.00000, 0.00000, 0.18750, -0.06250, -0.06250, 0.00000, -1.93750, 0.00000, 0.00000, 0.00000, -0.06250, -0.12500, 0.00000, -0.75000, 0.06250, 0.00000, -1.81250, -0.06250, 0.00000, -0.06250, 0.00000, -1.75000, -0.06250, -0.56250, 0.00000, 0.06250, -0.06250, 0.00000, -0.06250, -0.06250, 0.00000, 0.00000, 0.00000, 0.00000, 0.06250, -0.06250, -0.06250, -1.00000, 0.00000, 0.00000, 0.00000, 0.00000, -0.62500, -0.06250, 0.00000, -2.00000, 0.00000, 0.00000, -0.12500, 1.75000, -0.06250, 0.00000, 0.00000, -0.18750, 0.06250, 0.00000, 0.00000, 1.31250, 0.00000, 0.00000, 0.00000, 0.00000, 0.43750, -0.06250, 0.00000, -1.81250, 0.00000, 0.00000, -0.06250, -1.68750, -0.06250, -0.06250, 0.00000, -0.12500, 0.00000, 0.00000, 0.00000, -1.06250, 0.00000, 0.00000, -1.56250, 0.00000, 0.00000, 0.12500, 0.00000, 0.06250, 0.00000, 0.00000, 0.00000, -1.68750, -0.06250, -0.06250, 0.00000, -0.12500, 0.00000, 0.00000, 0.00000, 1.18750, 0.00000, 0.00000, 0.00000, 0.00000, -0.56250, -0.81250, 0.00000, 0.00000, 0.00000, 0.06250, 0.00000, 0.00000, 0.00000, -0.06250, -0.06250, 0.00000, -0.50000, -1.87500, 0.00000, 0.00000, 0.00000, 0.00000, 0.06250, 0.00000, -0.68750, -0.93750, -1.93750, 0.00000, -0.06250, 0.00000, -0.06250, -0.06250, 0.62500, -0.06250, 0.00000, 0.00000, 1.81250, 0.00000, -0.06250, 0.00000, 0.00000, 0.00000, 0.00000, 0.00000, -0.06250, 1.93750, 0.00000, 0.00000, 0.00000, -0.06250, -0.06250, -0.06250, -1.25000, 0.00000, 0.00000, -0.12500, 1.93750, 0.00000, 0.00000, 0.00000, -1.93750, -0.06250, 0.00000, 0.00000, 0.12500, 0.00000, 0.00000, 0.00000, 0.00000, 1.68750, 0.18750, 0.00000, -0.06250, 0.00000, 0.00000, -0.81250, -1.43750, 0.00000, 0.00000, -0.06250, 0.12500, 0.00000, 0.06250, 0.00000, 0.00000, -0.12500, 0.00000, 0.00000, -0.06250, 1.81250, -0.87500, -0.06250, 0.00000, -0.06250, -1.75000, 0.12500, 0.06250, 0.00000, 0.00000, -0.06250, -1.87500, 0.00000, 0.00000, 0.00000, 0.00000, -0.12500, 0.00000, 0.00000, 0.00000, -1.56250, -0.93750, -0.12500, -0.12500, 0.00000, 0.12500, 0.56250, 0.06250, -2.00000, 0.00000, 0.00000, 0.00000, 0.00000, 0.00000, -2.00000, 0.00000, -0.12500, 0.06250, 0.00000, 0.00000, 0.00000, 0.00000, 0.00000, -1.50000, -0.68750, -1.81250, -0.06250, 0.06250, 0.06250, 0.00000, -0.06250, 0.00000, 0.00000, 0.00000, 0.06250, 0.00000, 0.00000, -1.81250, 0.00000, 0.00000, 0.00000, 0.00000, -0.06250, -1.62500, 0.93750, 0.00000, -0.06250, 0.12500, 0.00000};
#endif

#endif
