//Numpy array shape [20, 16]
//Min -2.000000000000
//Max 1.937500000000
//Number of zeros 163

#ifndef W9_H_
#define W9_H_

#ifndef __SYNTHESIS__
weight9_t w9[320];
#else
weight9_t w9[320] = {-2.00000, 1.93750, -2.00000, 0.00000, 0.00000, 0.00000, -0.37500, 0.00000, 0.00000, -0.12500, -0.87500, 0.00000, -0.37500, 0.00000, -1.93750, 1.93750, 0.00000, 0.00000, 0.00000, -2.00000, 0.00000, 1.93750, -2.00000, -0.37500, 0.00000, 0.00000, 0.00000, -0.68750, 0.00000, 0.00000, -0.68750, -0.62500, -0.37500, 0.00000, 1.00000, -1.68750, 0.00000, 0.50000, 0.00000, -2.00000, -2.00000, 1.75000, 1.06250, -2.00000, 0.00000, 0.00000, 0.00000, -2.00000, 0.00000, 0.87500, -2.00000, 1.93750, -1.68750, 0.00000, 0.00000, 0.00000, 0.00000, 0.00000, 0.00000, 0.00000, 0.00000, 0.00000, 0.06250, 0.00000, 1.93750, -2.00000, -2.00000, 0.00000, 0.00000, -2.00000, -2.00000, 1.93750, 0.00000, -0.25000, -2.00000, 0.00000, 0.00000, -1.62500, -0.25000, 0.00000, 0.00000, 0.25000, -0.31250, -2.00000, 0.00000, 0.06250, -1.62500, -2.00000, 0.00000, 0.00000, 0.00000, -2.00000, 0.00000, 1.12500, -2.00000, -2.00000, 0.00000, 0.00000, 0.00000, 0.00000, 0.00000, 0.00000, 0.00000, 0.00000, 0.00000, -0.75000, 1.93750, -2.00000, -2.00000, 1.93750, 0.00000, -0.18750, 0.25000, -1.25000, 0.00000, 0.00000, 0.00000, -2.00000, 1.93750, -2.00000, 1.93750, -2.00000, 0.00000, 0.00000, 0.00000, 0.00000, -0.43750, 0.00000, -1.31250, -2.00000, 1.93750, 0.00000, -2.00000, 0.00000, 0.00000, 0.00000, -1.87500, -1.62500, 0.00000, 0.18750, -1.12500, 0.00000, 0.00000, 0.00000, 0.00000, 0.00000, -1.12500, -2.00000, 0.00000, 0.00000, -2.00000, -2.00000, 0.00000, 1.93750, -2.00000, -2.00000, 0.18750, 0.00000, -2.00000, -2.00000, 0.00000, -0.18750, -1.06250, -0.56250, 0.00000, -1.12500, -2.00000, 1.43750, 0.06250, 0.00000, -2.00000, -0.43750, 1.93750, -2.00000, -2.00000, 0.93750, 0.00000, -2.00000, -0.12500, 0.00000, -1.62500, -2.00000, 1.18750, 0.00000, 0.00000, -2.00000, 0.00000, 0.06250, -2.00000, -1.62500, 0.00000, 0.00000, 0.00000, 0.00000, 0.00000, 0.00000, 0.00000, 0.00000, 0.00000, 0.00000, 0.00000, 0.00000, 0.00000, 0.00000, 0.00000, 0.00000, 0.00000, 0.00000, 0.00000, 0.00000, -2.00000, 1.93750, 1.93750, -2.00000, 0.00000, 0.00000, 0.00000, 0.00000, -0.75000, 0.00000, 0.00000, -0.12500, 0.00000, 0.00000, 0.00000, 0.00000, 0.00000, 0.00000, 0.00000, 0.12500, 0.00000, 0.00000, -2.00000, 1.81250, 0.00000, 0.00000, 0.00000, 1.93750, -2.00000, 1.12500, 0.87500, 0.81250, 0.00000, 0.00000, 1.93750, -2.00000, 0.00000, 0.00000, 0.93750, 0.00000, 0.00000, 0.00000, 0.00000, 0.00000, 0.00000, 0.00000, -2.00000, -1.18750, 0.00000, 0.00000, -2.00000, -0.18750, 0.00000, 0.00000, -2.00000, -2.00000, 1.93750, 0.31250, -2.00000, -0.93750, 0.56250, 0.00000, -2.00000, 0.00000, 0.00000, 0.00000, -1.68750, 0.00000, 0.00000, 0.00000, -2.00000, -0.25000, 0.00000, 0.00000, -2.00000, 0.18750, 0.06250, 0.00000, 0.00000, 0.00000, -0.87500, -0.43750, 0.00000, -0.43750, 0.00000, -0.68750, 0.00000, -1.00000, 0.00000, 0.00000, 0.25000, -2.00000, 1.93750, -2.00000, -1.62500, 0.00000, 0.00000, 0.00000, 0.00000, -0.31250, 0.00000, 0.43750, -0.12500, 0.00000, -2.00000, 1.93750, 0.00000, -1.87500, 0.00000, 0.50000};
#endif

#endif
