//Numpy array shape [16, 25]
//Min -0.562500000000
//Max 0.625000000000
//Number of zeros 231

#ifndef W3_H_
#define W3_H_

#ifndef __SYNTHESIS__
weight3_t w3[400];
#else
weight3_t w3[400] = {0.25000, 0.12500, 0.00000, 0.00000, 0.00000, -0.06250, -0.06250, -0.18750, 0.00000, 0.00000, -0.06250, 0.18750, 0.00000, 0.37500, -0.12500, 0.00000, 0.31250, -0.06250, 0.06250, 0.00000, -0.06250, 0.00000, 0.00000, 0.00000, 0.00000, 0.00000, 0.06250, 0.00000, 0.31250, 0.00000, 0.00000, 0.25000, -0.18750, 0.00000, 0.00000, -0.06250, 0.18750, 0.00000, 0.00000, -0.06250, 0.31250, 0.43750, -0.06250, 0.06250, -0.06250, -0.06250, 0.00000, 0.00000, 0.00000, 0.00000, 0.00000, 0.06250, 0.00000, -0.25000, 0.00000, 0.00000, 0.00000, -0.06250, 0.00000, 0.00000, 0.00000, 0.06250, 0.00000, 0.00000, 0.00000, 0.31250, 0.12500, 0.00000, 0.56250, 0.25000, -0.18750, 0.00000, 0.00000, 0.00000, 0.00000, 0.00000, 0.00000, 0.00000, 0.25000, 0.31250, -0.06250, 0.00000, -0.06250, 0.00000, 0.00000, -0.18750, 0.12500, 0.25000, 0.31250, 0.37500, 0.00000, 0.00000, 0.31250, 0.12500, 0.00000, -0.25000, 0.00000, 0.00000, 0.00000, 0.00000, 0.00000, 0.12500, 0.31250, -0.12500, 0.00000, -0.06250, 0.00000, -0.25000, 0.00000, 0.00000, 0.00000, -0.25000, 0.31250, 0.00000, -0.18750, 0.00000, 0.00000, 0.00000, -0.25000, 0.00000, -0.12500, 0.00000, 0.00000, 0.00000, 0.31250, 0.00000, 0.06250, 0.00000, 0.00000, 0.31250, 0.00000, 0.00000, 0.62500, 0.00000, 0.00000, -0.06250, 0.06250, 0.31250, 0.62500, -0.12500, 0.00000, 0.00000, -0.06250, -0.12500, 0.00000, -0.06250, 0.00000, 0.00000, 0.00000, 0.00000, 0.00000, 0.00000, 0.00000, 0.06250, 0.00000, 0.00000, -0.06250, 0.50000, 0.00000, 0.31250, -0.25000, 0.06250, 0.00000, -0.25000, -0.06250, 0.00000, 0.00000, 0.00000, -0.18750, 0.25000, -0.18750, 0.00000, 0.00000, 0.00000, 0.00000, 0.00000, -0.06250, 0.00000, 0.06250, 0.00000, 0.00000, 0.00000, 0.12500, 0.00000, 0.31250, 0.31250, 0.00000, 0.00000, -0.18750, 0.00000, 0.00000, 0.00000, -0.06250, 0.18750, -0.06250, -0.18750, -0.31250, 0.00000, 0.00000, 0.00000, 0.00000, -0.06250, 0.00000, 0.00000, 0.00000, 0.00000, 0.00000, -0.12500, 0.25000, 0.00000, 0.37500, 0.18750, 0.00000, -0.06250, 0.56250, 0.00000, 0.00000, 0.00000, 0.06250, 0.00000, 0.00000, 0.00000, 0.00000, 0.00000, 0.00000, 0.00000, -0.50000, 0.00000, -0.12500, 0.00000, 0.00000, 0.00000, -0.18750, 0.00000, 0.00000, 0.50000, 0.18750, 0.00000, -0.06250, 0.12500, 0.00000, 0.00000, 0.43750, 0.00000, 0.00000, -0.06250, 0.00000, 0.00000, 0.00000, 0.00000, 0.00000, -0.43750, 0.00000, -0.06250, 0.00000, 0.00000, 0.31250, 0.00000, 0.25000, 0.00000, 0.12500, 0.12500, 0.00000, -0.18750, 0.00000, 0.00000, -0.18750, 0.06250, 0.00000, 0.00000, -0.18750, 0.00000, 0.31250, 0.00000, 0.00000, -0.06250, 0.18750, 0.37500, -0.12500, 0.00000, 0.00000, 0.00000, -0.06250, 0.00000, 0.00000, 0.00000, 0.00000, 0.00000, -0.25000, -0.06250, 0.00000, 0.00000, 0.37500, 0.00000, 0.00000, -0.18750, 0.00000, 0.37500, 0.00000, 0.00000, 0.00000, 0.00000, 0.00000, 0.00000, 0.00000, 0.31250, 0.00000, 0.31250, 0.00000, 0.00000, -0.06250, 0.25000, 0.00000, -0.06250, -0.12500, 0.00000, 0.00000, 0.00000, -0.25000, 0.00000, 0.56250, 0.00000, 0.00000, 0.31250, 0.00000, 0.00000, 0.06250, 0.00000, 0.00000, 0.00000, -0.06250, 0.00000, -0.06250, 0.00000, 0.00000, -0.12500, -0.56250, 0.00000, -0.12500, -0.12500, 0.00000, 0.00000, 0.00000, 0.00000, 0.00000, 0.62500, 0.25000, 0.00000, 0.00000, 0.25000, 0.37500, 0.00000, 0.00000, 0.00000, 0.00000, 0.25000, 0.00000, 0.00000, 0.00000, 0.00000, 0.00000, -0.50000, 0.00000, -0.25000, 0.43750, 0.00000, 0.00000, -0.12500, 0.00000, 0.00000, 0.31250, 0.25000, 0.00000, -0.06250, 0.00000, 0.31250, -0.06250, 0.00000, 0.00000, 0.00000, -0.06250, 0.31250, -0.06250, 0.00000, 0.00000, 0.00000, 0.00000, 0.00000, -0.18750, -0.06250, 0.00000, -0.06250, -0.06250, 0.00000, 0.00000, 0.00000, 0.18750, 0.00000, 0.18750, -0.06250};
#endif

#endif
