//Numpy array shape [25, 12]
//Min -2.000000000000
//Max 1.375000000000
//Number of zeros 143

#ifndef W5_H_
#define W5_H_

#ifndef __SYNTHESIS__
weight5_t w5[300];
#else
weight5_t w5[300] = {0.12500, -0.43750, -0.56250, 0.18750, -0.18750, 0.00000, 0.00000, 0.00000, 0.00000, 0.00000, 0.00000, 0.00000, 0.06250, 0.00000, 0.00000, -0.18750, 0.06250, 0.00000, 0.00000, 0.31250, -0.31250, 0.00000, 0.18750, -0.68750, 0.00000, 0.00000, 0.00000, 0.00000, 0.00000, 0.00000, -0.12500, 0.00000, 0.37500, 0.00000, 0.68750, 0.06250, -0.06250, 0.00000, -0.25000, 0.12500, 0.75000, 0.18750, 0.06250, 0.00000, 0.00000, 0.00000, -1.87500, -1.12500, 0.12500, -0.87500, 0.00000, 0.00000, -0.25000, 0.25000, 0.37500, 0.37500, 0.50000, 0.06250, -0.87500, 0.00000, 0.00000, -0.37500, -0.50000, -0.06250, 0.68750, 0.00000, 0.06250, -0.81250, 0.25000, 0.00000, -0.18750, 0.00000, 0.06250, 0.00000, 0.00000, -0.18750, 0.00000, 0.25000, 0.00000, 0.87500, 0.06250, 0.12500, 0.31250, -0.43750, 0.12500, 0.00000, -0.68750, 0.12500, -0.56250, 0.00000, -0.12500, 0.18750, 0.06250, 0.00000, 0.00000, 0.00000, 0.06250, -0.93750, 1.37500, -0.37500, 0.00000, -0.37500, 0.00000, 0.50000, 0.00000, 0.00000, -0.25000, 0.00000, 0.00000, -0.25000, 0.00000, 0.18750, 0.00000, 0.06250, 0.06250, 0.00000, 0.25000, -0.06250, 1.06250, 0.18750, 0.00000, 1.18750, -0.06250, 0.00000, 0.00000, -0.31250, 0.00000, -0.31250, 0.00000, 0.00000, 0.06250, 0.00000, 0.00000, 0.31250, 0.18750, 0.00000, 0.00000, 0.12500, 0.00000, 0.00000, 0.00000, 0.00000, 0.00000, -0.06250, -1.18750, 0.00000, 0.00000, 0.00000, -0.68750, -0.75000, 0.00000, 0.43750, 0.00000, 0.00000, 0.06250, 0.50000, 0.00000, -0.81250, -0.50000, -0.50000, -0.25000, 0.50000, -0.12500, -0.12500, 0.00000, 0.00000, 0.00000, 0.18750, 0.00000, -0.50000, -0.31250, 0.00000, 0.00000, -0.06250, 0.06250, -0.43750, 0.00000, 0.00000, 0.12500, 0.12500, 0.00000, 1.18750, 0.00000, 0.18750, 0.50000, 0.06250, 0.00000, -0.12500, 0.00000, 0.00000, 1.06250, 0.06250, 0.06250, 0.00000, 0.00000, -0.31250, 0.00000, 0.00000, -0.12500, 0.06250, -0.62500, 0.00000, 0.00000, -0.25000, -0.12500, 0.00000, 0.00000, 0.06250, -0.18750, 0.31250, 0.12500, 0.00000, 0.00000, 0.00000, 0.00000, -0.43750, 0.00000, 0.00000, 0.00000, 0.00000, 0.43750, 0.00000, 0.37500, 0.00000, 0.00000, 1.25000, 0.00000, 0.43750, -0.06250, 0.00000, 0.12500, 0.00000, 0.06250, 0.00000, 0.00000, 0.00000, 0.18750, 0.00000, 0.62500, 0.00000, 0.06250, 0.00000, 0.00000, 0.43750, 0.00000, 0.00000, 0.00000, 0.00000, 0.00000, 0.00000, 0.43750, 0.00000, 0.25000, -1.56250, -0.12500, 0.00000, -0.62500, 0.00000, -0.62500, 0.00000, -0.18750, 0.00000, -2.00000, 0.00000, 0.18750, 0.00000, 0.00000, 0.18750, 0.00000, 0.00000, 0.00000, -0.68750, 0.00000, 0.00000, 0.00000, 0.12500, 0.25000, 0.56250, -1.00000, 0.06250, -0.81250, 0.00000, 0.00000, 0.06250, 0.43750, 0.00000, 0.00000, 0.00000, 0.00000, 0.00000, 0.00000, 0.00000, 0.12500, 0.18750, 0.31250, 0.25000, 0.37500, 0.00000, -0.81250, -2.00000};
#endif

#endif
